{'b2': [[0.20980392]], 'w2': [[0.15882353], [0.39019608], [0.44901961], [0.25686275], [0.24901961], [0.36666667], [0.3], [-0.37843137], [-0.41372549], [0.19803922]], 'w1': [[-0.34313725, -0.20980392, 0.44509804, -0.39019608, -0.25294118, 0.41764706, -0.00588235, -0.1, 0.28823529, 0.47647059], [-0.26470588, 0.31960784, 0.25686275, -0.00196078, -0.13529412, -0.29215686, 0.00980392, -0.02156863, -0.0372549, -0.3], [0.04901961, -0.13921569, 0.26470588, 0.48431373, -0.30784314, 0.34705882, -0.43333333, -0.1627451, -0.40196078, -0.37058824], [-0.26078431, 0.07254902, -0.00980392, 0.04117647, 0.2254902, -0.3745098, 0.16666667, -0.06862745, 0.35490196, -0.2372549], [-0.46078431, -0.35098039, 0.06862745, 0.48039216, 0.42156863, -0.12352941, -0.48431373, -0.12745098, 0.25294118, -0.48823529], [0.5, -0.13137255, -0.33921569, -0.20980392, -0.21372549, -0.00588235, -0.33921569, -0.07254902, -0.19019608, 0.03333333], [0.41764706, 0.47254902, -0.21372549, -0.26078431, 0.25686275, 0.40980392, -0.46470588, -0.38627451, -0.18235294, -0.45294118], [0.15490196, 0.30784314, 0.02941176, 0.4254902, -0.14313725, 0.2254902, 0.17843137, 0.25686275, 0.48431373, -0.02156863], [-0.14313725, 0.20588235, 0.35098039, 0.12352941, -0.25686275, 0.2254902, -0.01764706, 0.3627451, -0.22156863, 0.20980392], [0.13529412, 0.40588235, -0.48431373, -0.40196078, 0.0254902, 0.32745098, -0.24509804, 0.24117647, -0.27254902, -0.33529412], [-0.37843137, -0.28823529, 0.11176471, -0.34705882, 0.10392157, 0.03333333, 0.05294118, 0.42156863, 0.42156863, -0.40588235], [0.3627451, 0.37843137, 0.24117647, -0.03333333, 0.47647059, 0.05294118, -0.49607843, 0.35490196, -0.08431373, -0.38627451], [0.00980392, -0.09215686, 0.24509804, -0.23333333, 0.17058824, -0.19019608, 0.06078431, -0.16666667, 0.40588235, -0.44509804]], 'b1': [[0.18627451, 0.46470588, -0.02941176, -0.25294118, 0.45294118, 0.3, -0.11960784, -0.24901961, -0.28431373, 0.15882353]]}