{'w2': [[-0.27085787057876587], [0.33171290159225464], [0.5569909811019897], [0.052139438688755035], [0.08557489514350891], [0.2619796097278595], [0.9509135484695435], [-0.5846636295318604], [-0.6598556041717529], [0.15319639444351196]], 'w1': [[-0.3999879062175751, 0.032556965947151184, 0.6177674531936646, -0.3437786400318146, -0.020325809717178345, 0.5171517729759216, 1.0657764673233032, -0.4199898838996887, -0.03776704519987106, 0.8094698786735535], [-0.6479815244674683, 0.6851011514663696, 0.438212513923645, 0.07557091116905212, 0.14622479677200317, -0.09304589778184891, 1.3803402185440063, -0.398494154214859, -0.6770418286323547, 0.1433904767036438], [-0.4672039747238159, -0.07657952606678009, 0.11458994448184967, 0.28296270966529846, -0.41183608770370483, 0.2226233333349228, -2.253798723220825, -0.08737103641033173, -0.3789918124675751, -0.8653872609138489], [-0.5469983816146851, 0.48146122694015503, 0.5040873289108276, 0.15662914514541626, 0.5730174779891968, -0.026314761489629745, 0.9919641613960266, -0.7066619396209717, -0.015491843223571777, -0.014090045355260372], [-0.6378979086875916, -0.5009629726409912, -0.36451369524002075, 0.3357621431350708, 0.30176717042922974, -0.30465754866600037, -1.1415913105010986, 0.16968609392642975, 0.3180462718009949, -0.7510074973106384], [0.1348118782043457, -0.09858489036560059, -0.5235456228256226, -0.3294302523136139, -0.27429071068763733, 0.02736382558941841, -1.1382120847702026, -0.04335230961441994, -0.5463240742683411, -0.21557606756687164], [0.651888370513916, -0.055871471762657166, -0.5359626412391663, -0.4325702488422394, 0.09791862964630127, 0.11279112100601196, -0.5692078471183777, 0.03327340632677078, 0.15494349598884583, -0.4516037106513977], [0.3891436457633972, -0.220577672123909, -0.292825847864151, 0.2537042498588562, -0.30208125710487366, -0.0715225413441658, 0.07392843067646027, 0.6764102578163147, 0.8216095566749573, -0.020231250673532486], [-0.45765525102615356, 0.6615282297134399, 0.7925460934638977, 0.26712384819984436, -0.017589276656508446, 0.6783474683761597, 1.2106411457061768, -0.22115401923656464, -1.2029701471328735, 0.4812156558036804], [-0.04181985184550285, 0.255899041891098, -0.9174544215202332, -0.5465899705886841, -0.09431155025959015, 0.14632244408130646, -0.9023755192756653, 0.538313627243042, -0.20744368433952332, -0.5980666279792786], [-0.7058099508285522, -0.155690535902977, 0.18209080398082733, -0.34522977471351624, 0.199808269739151, 0.18201616406440735, 0.7235921621322632, 0.11781659722328186, 0.03135945647954941, -0.23582462966442108], [0.18563073873519897, 0.22844795882701874, -0.19196464121341705, -0.1779632568359375, 0.3566691279411316, -0.12818720936775208, -1.1533558368682861, 0.6520388126373291, -0.019208451732993126, -0.6490465998649597], [0.24404539167881012, -0.6205777525901794, -0.07713934034109116, -0.40511929988861084, 0.01164432056248188, -0.4872085452079773, -0.04371855780482292, 0.25288140773773193, 0.7431781888008118, -0.4437606930732727]]}