{'w1': [[-0.7498088479042053, -1.2402257919311523, -0.5439795255661011, 0.07458533346652985, -0.14442402124404907, 0.7552588582038879, 0.020535781979560852, -0.22812554240226746, 0.026095222681760788, -1.9773164987564087], [-2.2405004501342773, -0.6133397817611694, 0.9800821542739868, -0.8598951697349548, -0.009132450446486473, 0.5103954076766968, -1.4293010234832764, -0.46556708216667175, 1.840190052986145, 0.8022836446762085], [-0.6766045689582825, -0.02535124309360981, -0.3833892345428467, -1.3940616846084595, -0.7215670943260193, 0.34189939498901367, -1.2602452039718628, -1.386755108833313, -0.09637883305549622, 0.4988223910331726], [0.8689581155776978, 0.1613636165857315, -0.5963928699493408, -1.4488099813461304, 0.045830730348825455, 0.3587295711040497, -1.4310581684112549, -0.8174523711204529, -1.8824801445007324, -0.3623379170894623], [0.006156989838927984, -1.227683663368225, -1.326230525970459, -0.6343116760253906, -0.6125220656394958, -0.9365487098693848, 0.7687035799026489, -1.5099025964736938, -0.08346796035766602, 0.05103755369782448], [-0.7792013883590698, -0.9376407861709595, 0.24113839864730835, -0.7358613014221191, -0.32448500394821167, -0.3907046616077423, -1.1651753187179565, -0.23055849969387054, 1.4645060300827026, 0.4890368580818176], [1.7252068519592285, 0.15603260695934296, -1.3895936012268066, 0.6262027025222778, 0.09297529608011246, -0.08603215217590332, -0.6167319416999817, 2.0601043701171875, -0.0332818478345871, 1.2326046228408813], [0.21171480417251587, -0.0040027364157140255, -0.6961447596549988, -0.5315618515014648, 0.13669244945049286, -0.7444581389427185, -0.3710993826389313, 1.0862113237380981, 2.6543965339660645, 0.28488418459892273], [-0.6660149693489075, 0.5957604050636292, 0.8131820559501648, 0.6740460395812988, 1.1861323118209839, 0.33140262961387634, 1.1534491777420044, -0.368133544921875, -0.11993635445833206, 1.0631158351898193], [0.5873967409133911, -0.01418016292154789, -0.8610770106315613, 1.1786630153656006, -0.41336745023727417, -0.6675444841384888, 0.592846155166626, -0.5501434206962585, -1.191100001335144, 1.646591067314148], [1.6691166162490845, -0.6917711496353149, -0.875237226486206, 0.21361663937568665, 0.22510266304016113, -0.24427464604377747, 0.03727614879608154, 1.2362092733383179, -0.6298051476478577, 0.3855828642845154], [-1.139589548110962, -1.389867901802063, -0.3028152585029602, 0.9046598672866821, -0.6979698538780212, 1.0581434965133667, 1.7969036102294922, -0.3397080600261688, -0.17372240126132965, 0.4678209125995636], [-1.323907732963562, 0.04906356707215309, 0.6607482433319092, 0.7063883543014526, -1.1100306510925293, -0.35060638189315796, 1.0608539581298828, 0.7449716329574585, -0.15196068584918976, 1.8278963565826416]], 'w2': [[-0.7429671287536621], [-1.2741581201553345], [-0.0862504169344902], [1.4024490118026733], [2.5442330837249756], [1.072255253791809], [-2.0150506496429443], [-0.47975435853004456], [-0.5012516379356384], [0.015376175753772259]]}