{'w1': [[2.4891345500946045, 1.309553623199463, 1.2605040073394775, 1.0471410751342773, -0.4926634728908539, -0.6854461431503296, 0.23230357468128204, 0.9138228297233582, -0.5773136019706726, -1.2716578245162964], [-0.2816111445426941, -0.18816916644573212, -0.7296625971794128, 0.5215697884559631, 0.43892717361450195, -1.561909794807434, 0.14560049772262573, -1.4711791276931763, 0.42470046877861023, -1.4264657497406006], [0.05093618854880333, 0.17106372117996216, -1.4942755699157715, 0.576729416847229, 0.10410743206739426, 0.7271479964256287, -3.1287360191345215, -0.5134043097496033, -0.05044490844011307, -0.056166019290685654], [0.2606392204761505, 0.19553376734256744, -0.4179348647594452, -1.688124179840088, 0.6723835468292236, 1.6005653142929077, 0.9113057255744934, 0.6641556024551392, 0.7514052987098694, -0.3030705153942108], [-0.5857007503509521, 1.3175104856491089, 0.050152380019426346, 0.10091129690408707, 0.3441047966480255, -1.532962441444397, 0.06009630113840103, 1.5868414640426636, 1.047118067741394, 1.5100544691085815], [0.2462194710969925, -1.7351526021957397, -0.010908768512308598, 0.835177481174469, 0.44172608852386475, 1.7777166366577148, -3.5324652194976807, 0.033997200429439545, -0.07523678243160248, 0.9921541810035706], [0.42698541283607483, -0.8977046012878418, 0.6999902725219727, -2.101317882537842, -0.3637584149837494, -0.4819936156272888, 2.333766460418701, -1.123453140258789, -1.314602017402649, -0.7136363387107849], [0.10247832536697388, -0.005928236059844494, 0.7219233512878418, 0.14976726472377777, -0.26319417357444763, 2.093095064163208, -0.6858361959457397, 2.1998987197875977, -0.9668257832527161, 1.0341235399246216], [-0.03729522228240967, 0.4694277346134186, -1.7613641023635864, 1.547607660293579, 0.2002067267894745, -0.2296995371580124, 1.3456722497940063, 0.5224598050117493, 1.8273670673370361, 0.26724353432655334], [0.705799400806427, -0.17859221994876862, -2.1059417724609375, -0.14681276679039001, -1.6976646184921265, 0.8286892175674438, 1.2466052770614624, -1.1419886350631714, -0.160081684589386, -1.9597097635269165], [0.8215814828872681, -0.30849412083625793, -0.46936288475990295, 0.04059763252735138, 0.9640197157859802, 0.4307297468185425, -0.5287815928459167, -0.028812140226364136, -0.8946131467819214, 0.041496749967336655], [0.41313663125038147, 1.753083348274231, -2.024137258529663, 0.09254483878612518, 0.5446880459785461, -1.0190036296844482, -1.343739628791809, -0.2793966829776764, -0.4272978603839874, 0.08948131650686264], [0.701596200466156, 0.6235802173614502, -0.699065089225769, 0.7062211632728577, 0.5801209211349487, 0.2500176429748535, 0.6246033310890198, 0.22625203430652618, 0.051239706575870514, 0.1628170758485794]], 'w2': [[-0.5953294634819031], [-0.45099619030952454], [0.14923346042633057], [0.8296677470207214], [0.7445853352546692], [0.5655422210693359], [0.6321879029273987], [0.27102193236351013], [0.4491150379180908], [-1.5608839988708496]]}