{'w1:': [[-0.4284977912902832, -0.04684162139892578, 0.6427811980247498, -0.35132744908332825, -0.10458830744028091, 0.5916332602500916, 0.27859005331993103, -0.34729114174842834, 0.03874307498335838, 0.5555521845817566], [-0.35109418630599976, 0.5456063747406006, 0.5226007103919983, 0.07012074440717697, 0.06100040301680565, -0.07190414518117905, 0.403041273355484, -0.3483118712902069, -0.34707552194595337, -0.15549999475479126], [-0.06542705744504929, -0.46845653653144836, -0.08957621455192566, 0.23855657875537872, -0.5779624581336975, 0.05520768463611603, -0.7739260792732239, 0.2070833444595337, -0.07175956666469574, -0.6345138549804688], [-0.338554322719574, 0.28543806076049805, 0.23351611196994781, 0.09664617478847504, 0.4180704951286316, -0.1653635948896408, 0.3722255527973175, -0.34339219331741333, 0.06359243392944336, -0.15876634418964386], [-0.5587467551231384, -0.5136923789978027, -0.0851149782538414, 0.3411198556423187, 0.30704429745674133, -0.2611777186393738, -0.5658509135246277, 0.016872400417923927, 0.3785928189754486, -0.6184101104736328], [0.40795907378196716, -0.28165894746780396, -0.47239747643470764, -0.34384065866470337, -0.31552621722221375, -0.10779480636119843, -0.38730698823928833, 0.03364208713173866, -0.08658504486083984, -0.07549021393060684], [0.3545951545238495, 0.300910085439682, -0.3417234718799591, -0.40148043632507324, 0.17368066310882568, 0.3555545508861542, -0.4651227295398712, -0.30464738607406616, -0.09277129173278809, -0.49507084488868713], [0.09185004979372025, 0.13620392978191376, -0.09858623147010803, 0.28479406237602234, -0.2263193428516388, 0.17124080657958984, 0.17801456153392792, 0.3384898900985718, 0.5738953948020935, -0.06369813531637192], [-0.22271084785461426, 0.46977248787879944, 0.6478478908538818, 0.21202412247657776, -0.05261474475264549, 0.49939414858818054, 0.2798178195953369, 0.015682969242334366, -0.5790141820907593, 0.3319091796875], [0.03733135759830475, 0.24317044019699097, -0.6380558013916016, -0.5412331223487854, -0.08903415501117706, 0.18980257213115692, -0.32663536071777344, 0.3854999244213104, -0.14689728617668152, -0.46546900272369385], [-0.4756801128387451, -0.2567669451236725, 0.16161420941352844, -0.386305034160614, 0.1381845325231552, 0.08247777074575424, 0.15165452659130096, 0.32836684584617615, 0.32297858595848083, -0.41853076219558716], [0.26478224992752075, 0.21571938693523407, 0.08743401616811752, -0.1726057529449463, 0.3619462549686432, -0.0847071185708046, -0.5776156187057495, 0.4992254078388214, 0.04133796691894531, -0.5164492130279541], [-0.05324799194931984, -0.26379600167274475, 0.1171000599861145, -0.3740294873714447, 0.08740624785423279, -0.24444544315338135, 0.06036745756864548, -0.08503928780555725, 0.49546393752098083, -0.48722782731056213]], 'w2': [[-0.106972835958004], [0.3247744143009186], [0.4659327566623688], [0.07428932189941406], [0.11964192241430283], [0.25856900215148926], [0.307658851146698], [-0.48683619499206543], [-0.4967416524887085], [0.1046399474143982]]}