{'w2': [[-0.43209198117256165], [0.36141714453697205], [0.7637398838996887], [0.0858704224228859], [0.18902407586574554], [0.22834661602973938], [0.9680011868476868], [-0.6714053750038147], [-0.9164234399795532], [0.20651434361934662]], 'w1': [[-0.6525891423225403, 0.18174032866954803, 1.2104837894439697, -0.36728256940841675, 0.08597543835639954, 0.4269293248653412, 0.8994237780570984, -0.6646820902824402, 0.598866879940033, 0.964263916015625], [-1.4242379665374756, 0.9221414923667908, 0.28812867403030396, 0.03421387821435928, 0.08141208440065384, -0.1402921974658966, 1.3353091478347778, -0.2241654247045517, -0.9152428507804871, 0.032447151839733124], [-1.5008599758148193, -0.08818156272172928, 1.4569416046142578, 0.2737841308116913, -0.3651910424232483, 0.03605204448103905, -4.607301712036133, -0.8798164129257202, 0.09328587353229523, -1.0944794416427612], [-0.547091543674469, 0.4376508891582489, 0.9084674715995789, 0.22635947167873383, 0.7476349472999573, 0.06423968076705933, 0.7804798483848572, -1.176377773284912, 1.113869547843933, -0.04426148533821106], [-1.2108991146087646, -0.37142738699913025, -0.703180730342865, 0.3431004285812378, 0.29428258538246155, -0.22900868952274323, -0.9314547181129456, 0.4354279339313507, 0.27473923563957214, -0.6169993877410889], [-0.09754259884357452, -0.12261397391557693, -0.8543145060539246, -0.39167261123657227, -0.6064820289611816, -0.008541728369891644, -1.746319055557251, -0.0738818421959877, -1.743531346321106, -0.47761568427085876], [1.0221015214920044, -0.04110762104392052, -0.6922054886817932, -0.44415074586868286, -0.010794119909405708, -0.06147405505180359, -0.11013974994421005, 0.17531727254390717, 0.16882482171058655, -0.8323359489440918], [0.7593572735786438, -0.2058134824037552, -0.4490691125392914, 0.24212360382080078, -0.4107940196990967, -0.2457876205444336, 0.5329964756965637, 0.8184534907341003, 0.8354909420013428, -0.4009627401828766], [-0.5873006582260132, 0.45250970125198364, 0.5915647745132446, 0.1676313281059265, -0.48072394728660583, 0.4394550621509552, 1.2929702997207642, 0.14317479729652405, -2.3310444355010986, 0.17237058281898499], [-0.6148200035095215, 0.3854345679283142, -1.256119966506958, -0.5392505526542664, -0.10179592669010162, 0.2219708263874054, -0.6922385096549988, 0.8040558695793152, -0.2507508099079132, -0.46405869722366333], [-0.8737309575080872, -0.5966939926147461, 0.37419593334198, -0.36180877685546875, 0.0004231939965393394, 0.06146903336048126, 0.823093593120575, -0.04771706089377403, -0.11590618640184402, -0.03496124595403671], [-0.38737013936042786, 0.35798361897468567, -0.5306318998336792, -0.17062461376190186, 0.3491845428943634, -0.05253874883055687, -0.9432192444801331, 0.9177810549736023, -0.06251507997512817, -0.5150384902954102], [0.6142597794532776, -0.6058136224746704, -0.23338273167610168, -0.4166997969150543, -0.09706845134496689, -0.6614733934402466, 0.41534939408302307, 0.394925594329834, 0.7570594549179077, -0.8244929909706116]]}