{'w2': [[-0.6799076795578003], [0.4879535138607025], [1.0024778842926025], [0.09535860270261765], [0.34085384011268616], [0.15288235247135162], [0.9908215999603271], [-0.8495591878890991], [-1.308567762374878], [0.5746280550956726]], 'w1': [[-0.3638089895248413, 0.10026482492685318, 1.6833436489105225, -0.5069034099578857, -0.0017739040777087212, 0.2815854847431183, 0.08741489052772522, -0.7335799336433411, 1.2858158349990845, 2.052525043487549], [-3.210968494415283, 1.3012887239456177, -0.19562534987926483, -0.07057300209999084, 0.19770190119743347, -0.2264629751443863, 1.1773756742477417, 0.21723076701164246, -0.9750913381576538, 0.45391061902046204], [-1.7947027683258057, 0.27109935879707336, 3.045863389968872, 0.34015581011772156, 0.14911162853240967, 0.08251897990703583, -6.518218517303467, -1.3544549942016602, 1.3450433015823364, -2.5797979831695557], [-0.6404107809066772, 0.6080317497253418, 1.2355880737304688, 0.10145508497953415, 0.6674042344093323, -0.058715544641017914, -0.5045190453529358, -1.4478577375411987, 1.1501551866531372, -0.4884577989578247], [-1.2401374578475952, -0.23759888112545013, -0.7736564874649048, 0.3662770092487335, 0.5608663558959961, -0.2332550585269928, -0.6462845206260681, 0.6504072546958923, 0.35682350397109985, -0.31923314929008484], [-0.16154828667640686, -0.4055798351764679, -1.8975272178649902, -0.4351910948753357, -1.0124439001083374, -0.13148672878742218, -1.2090836763381958, -0.5080289244651794, -2.8074347972869873, -0.8467512130737305], [0.9985038638114929, 0.21744197607040405, -0.992253839969635, -0.550952136516571, -0.20032639801502228, -0.12361317873001099, 0.40564462542533875, 0.3252756893634796, -0.03435831889510155, -0.3281799554824829], [0.7357620596885681, 0.05273627117276192, -0.7491177320480347, 0.1353224813938141, -0.6003254652023315, -0.30792713165283203, 1.0487796068191528, 0.9684127569198608, 0.6323082447052002, 0.10319334268569946], [-0.5599709749221802, -0.17469123005867004, 0.7017270922660828, -0.06074603274464607, -1.45375394821167, -0.05240439996123314, 1.4281175136566162, 0.35968017578125, -3.004487991333008, -1.0342789888381958], [-0.6440579295158386, 0.519262969493866, -1.326594352722168, -0.5160735845565796, 0.1647873818874359, 0.21772445738315582, -0.4070690870285034, 1.0190354585647583, -0.16866621375083923, -0.16629242897033691], [-0.8226895928382874, -2.367006540298462, 1.0519282817840576, -0.2557338774204254, -0.4661227762699127, -0.13913702964782715, 0.5084107518196106, 0.04553033411502838, -0.9082890748977661, -0.33968544006347656], [-0.4166089594364166, 0.4918120503425598, -0.601107656955719, -0.14744794368743896, 0.6157680749893188, -0.05678490549325943, -0.6580490469932556, 1.1327615976333618, 0.019569681957364082, -0.21727222204208374], [0.5906645655632019, -0.3472636342048645, -0.5334311723709106, -0.5235008001327515, -0.28660067915916443, -0.7236117124557495, 0.9311349391937256, 0.5448840856552124, 0.5538765788078308, -0.3203369677066803]]}