{'w2': [[-0.20789237320423126], [0.3301350474357605], [0.5211364030838013], [0.03904176875948906], [0.09506835043430328], [0.2552471458911896], [0.46059200167655945], [-0.5553290247917175], [-0.567338228225708], [0.11557848751544952]], 'w1': [[-0.48055300116539, 0.014534306712448597, 0.7185050845146179, -0.32939252257347107, -0.055189430713653564, 0.6403466463088989, 0.5487246513366699, -0.47225886583328247, -0.07242970168590546, 0.6417723298072815], [-0.45292428135871887, 0.6377654671669006, 0.6375495791435242, 0.09875871986150742, 0.12633968889713287, -0.0016498923068866134, 0.743571937084198, -0.5112919211387634, -0.4946996867656708, -0.03336182236671448], [0.015755830332636833, -0.5100231170654297, -0.1553918719291687, 0.2286739945411682, -0.6000512838363647, 0.021700087934732437, -0.8553308248519897, 0.2577544152736664, -0.02900933288037777, -0.6809903383255005], [-0.3996902108192444, 0.3604765832424164, 0.3293130397796631, 0.12112250924110413, 0.47617778182029724, -0.10119517147541046, 0.6090293526649475, -0.47895655035972595, -0.05253490060567856, -0.08689197152853012], [-0.46753087639808655, -0.5721611976623535, -0.15759195387363434, 0.33202317357063293, 0.2847123444080353, -0.3088320791721344, -0.574474036693573, 0.059347618371248245, 0.4337710738182068, -0.6368929743766785], [0.44261419773101807, -0.3107285499572754, -0.5010775923728943, -0.34641391038894653, -0.3188476264476776, -0.11978108435869217, -0.3689524233341217, 0.045209407806396484, -0.09402851015329361, -0.06816291064023972], [0.39168453216552734, 0.19432945549488068, -0.42421820759773254, -0.41462984681129456, 0.15683552622795105, 0.3123045861721039, -0.5322660803794861, -0.2091221958398819, -0.07864775508642197, -0.4593724012374878], [0.12893952429294586, 0.029623281210660934, -0.18108077347278595, 0.271644651889801, -0.24316447973251343, 0.12799079716205597, 0.11087105423212051, 0.434015154838562, 0.5880187153816223, -0.027999890968203545], [-0.3209048807621002, 0.5739971995353699, 0.7818722724914551, 0.2471795678138733, 0.010265426710247993, 0.5980975031852722, 0.5881881713867188, -0.16609537601470947, -0.7530953884124756, 0.43753165006637573], [0.12854711711406708, 0.18470130860805511, -0.7105332016944885, -0.5503298044204712, -0.11136629432439804, 0.1421479880809784, -0.3352583348751068, 0.42797529697418213, -0.09171908348798752, -0.4839519262313843], [-0.5114625692367554, -0.2033202201128006, 0.22720618546009064, -0.3662467896938324, 0.1764030009508133, 0.13149753212928772, 0.3763657808303833, 0.20714817941188812, 0.22366198897361755, -0.35222122073173523], [0.3559979200363159, 0.15725025534629822, 0.014957020990550518, -0.18170234560966492, 0.33961430191993713, -0.13236166536808014, -0.5862387418746948, 0.5417003631591797, 0.0965161919593811, -0.5349320769309998], [-0.016158483922481537, -0.37037667632102966, 0.03460550680756569, -0.387178897857666, 0.07056120038032532, -0.28769537806510925, -0.006775964051485062, 0.010485825128853321, 0.5095873475074768, -0.4515294134616852]]}