{'w2': [[-0.24028155207633972], [0.33409762382507324], [0.5426802635192871], [0.031957123428583145], [0.0910189300775528], [0.25888118147850037], [0.5592395663261414], [-0.576299786567688], [-0.5931341052055359], [0.13561630249023438]], 'w1': [[-0.4913847744464874, 0.025926541537046432, 0.7208129167556763, -0.32729247212409973, -0.04140189290046692, 0.6386047601699829, 0.5915753841400146, -0.4914039373397827, -0.10277913510799408, 0.6840956211090088], [-0.5047494173049927, 0.6621399521827698, 0.6575274467468262, 0.10223608464002609, 0.14531029760837555, 0.006885156966745853, 0.8219425082206726, -0.5464334487915039, -0.5472292900085449, 0.030103890225291252], [-0.0072963060811161995, -0.4765678644180298, -0.14665937423706055, 0.23241622745990753, -0.5864366292953491, 0.04307323694229126, -0.9657321572303772, 0.24784968793392181, -0.06478528678417206, -0.7201234698295593], [-0.4590252935886383, 0.39743170142173767, 0.36898159980773926, 0.12822110950946808, 0.5009793639183044, -0.07402930408716202, 0.6951077580451965, -0.5337831974029541, -0.1054266020655632, -0.05379762873053551], [-0.43922197818756104, -0.5823251008987427, -0.19187048077583313, 0.3311530351638794, 0.2832825183868408, -0.32096198201179504, -0.6922599077224731, 0.0833718404173851, 0.4419606626033783, -0.6563073992729187], [0.40067586302757263, -0.28780093789100647, -0.4856923818588257, -0.34299737215042114, -0.3056947886943817, -0.09736359119415283, -0.4051656424999237, 0.02896636538207531, -0.15186788141727448, -0.057192299515008926], [0.41423213481903076, 0.13137289881706238, -0.4671105444431305, -0.4181315004825592, 0.14984272420406342, 0.28375211358070374, -0.6179841160774231, -0.13749819993972778, -0.0712260827422142, -0.4150857925415039], [0.1514870524406433, -0.03333336114883423, -0.22397339344024658, 0.2681429982185364, -0.25015729665756226, 0.09943840652704239, 0.025152994319796562, 0.5056390762329102, 0.5954404473304749, 0.016286700963974], [-0.38168424367904663, 0.6096299886703491, 0.8261314630508423, 0.2555144727230072, 0.02608727477490902, 0.6344147324562073, 0.667564868927002, -0.22115552425384521, -0.8374786972999573, 0.4848971664905548], [0.1568560004234314, 0.17453737556934357, -0.7448115348815918, -0.5511999130249023, -0.11279605329036713, 0.13001808524131775, -0.4530443847179413, 0.4519994854927063, -0.0835295021533966, -0.5033665299415588], [-0.5674618482589722, -0.16860970854759216, 0.2610154449939728, -0.3586887717247009, 0.19546127319335938, 0.16165398061275482, 0.4435109794139862, 0.14986175298690796, 0.15836404263973236, -0.3123905062675476], [0.38430681824684143, 0.14708632230758667, -0.019321443513035774, -0.18257249891757965, 0.3381844758987427, -0.14449156820774078, -0.704024612903595, 0.5657244920730591, 0.10470577329397202, -0.55434650182724], [0.006389067508280277, -0.4333333373069763, -0.00828708428889513, -0.39068055152893066, 0.06356832385063171, -0.3162478506565094, -0.09249398112297058, 0.08210976421833038, 0.5170090794563293, -0.4072427749633789]]}