{'w2': [[-0.8910072445869446], [0.7611426711082458], [1.1112524271011353], [0.13312463462352753], [0.4838152527809143], [0.13924817740917206], [0.920787513256073], [-1.1095325946807861], [-1.4171603918075562], [0.8582764267921448]], 'w1': [[1.328626036643982, -0.6354618072509766, 1.8754527568817139, -0.670990526676178, -0.17583076655864716, 0.12437312304973602, -0.5483641624450684, -1.4729605913162231, 1.516696810722351, 2.564335584640503], [-4.805763244628906, 1.3292443752288818, -0.6170851588249207, -0.20894047617912292, 0.23165501654148102, -0.3628460168838501, 1.4649749994277954, 0.49262383580207825, -0.6154628396034241, 0.5105873346328735], [-0.5867475271224976, 0.7042524218559265, 4.619246959686279, 0.2907828688621521, 0.419921875, 0.019029609858989716, -7.487526893615723, -0.7671207785606384, 1.8084368705749512, -4.047878265380859], [-0.9168356657028198, 0.7464501261711121, 1.3216122388839722, -0.041278988122940063, 0.13002172112464905, -0.20661967992782593, 0.14984537661075592, -1.3754308223724365, 0.774890661239624, -1.2122280597686768], [-0.7331196665763855, 0.27185189723968506, -0.7667367458343506, 0.40004298090934753, 0.8368866443634033, -0.23655730485916138, -1.2433907985687256, 0.5728121995925903, 0.5356940627098083, -0.07093332707881927], [-0.24350738525390625, -0.579642653465271, -2.576355457305908, -0.4735431373119354, -0.8186604976654053, -0.09912534803152084, -0.8700494170188904, -1.5478825569152832, -1.9248473644256592, -1.0986218452453613], [0.5094430446624756, 0.28614166378974915, -0.9580362439155579, -0.696742594242096, -0.4821692705154419, -0.22172270715236664, 0.3964287042617798, 0.6190117597579956, -0.5575459003448486, 0.29660001397132874], [0.2467011958360672, 0.12143602967262268, -0.7149001359939575, -0.010468152351677418, -0.882168173789978, -0.40603649616241455, 1.039562702178955, 1.2621501684188843, 0.10912101715803146, 0.7279731035232544], [-0.5241316556930542, 0.2755338251590729, -0.1901025027036667, -0.303818941116333, -2.4191741943359375, -0.36137276887893677, 3.190548896789551, 0.9149375557899475, -4.182546615600586, -2.1624531745910645], [-0.1370398849248886, 1.0287126302719116, -1.3196760416030884, -0.482307106256485, 0.4408089518547058, 0.21442221105098724, -1.0041766166687012, 0.9414390921592712, 0.010204754769802094, 0.08200763165950775], [-0.9632101655006409, -4.807964324951172, 1.6532514095306396, 0.008707801811397076, -0.39786043763160706, -0.053115181624889374, 1.7387568950653076, 0.39471888542175293, -0.8989781737327576, 0.1454591006040573], [0.09040980786085129, 1.0012620687484741, -0.5941879153251648, -0.1136816143989563, 0.8917883634567261, -0.06008743494749069, -1.2551552057266235, 1.0551649332046509, 0.19844064116477966, 0.031027866527438164], [0.1016029343008995, -0.2785639464855194, -0.4992135465145111, -0.6692911982536316, -0.5684434175491333, -0.8217223286628723, 0.921919047832489, 0.8386209011077881, 0.030689289793372154, 0.3044430613517761]]}