{'w2': [[-1.0113133192062378], [0.8568922281265259], [1.0261236429214478], [0.25374865531921387], [0.5599819421768188], [0.16902996599674225], [0.9151245951652527], [-1.2280062437057495], [-1.5800137519836426], [0.8513627052307129]], 'w1': [[1.8626295328140259, -0.9841676950454712, 2.0863330364227295, -0.8800366520881653, 0.22554662823677063, -0.07128451019525528, -1.0055369138717651, -1.9140496253967285, 1.8232390880584717, 2.182918071746826], [-5.239388465881348, 1.1608166694641113, -0.2768721878528595, -0.2874903678894043, 0.5424308776855469, -0.46544569730758667, 1.6218717098236084, 0.9145337343215942, -0.630843460559845, 1.0248570442199707], [-0.5790155529975891, 1.2195940017700195, 5.075212001800537, -0.021000364795327187, 0.27937883138656616, -0.24172396957874298, -8.340113639831543, -0.1811925768852234, 1.5018717050552368, -4.527876853942871], [-1.7567881345748901, 0.5679596066474915, 1.7751092910766602, -0.12567457556724548, -1.0033323764801025, -0.34109315276145935, 0.5355134606361389, -1.295849323272705, 0.8814080953598022, -1.2714717388153076], [-0.4980432987213135, 0.5375579595565796, -0.8937332034111023, 0.4879693388938904, 0.8754269480705261, -0.24682645499706268, -1.5472444295883179, 0.3076533079147339, 0.5413573980331421, -0.07172189652919769], [-0.7851465940475464, -0.6601200699806213, -3.060171365737915, -0.5857830047607422, -1.266478419303894, -0.17569030821323395, -0.9454987049102783, -2.1096675395965576, -1.3759561777114868, -1.6915910243988037], [0.8348621726036072, 0.34561964869499207, -1.044355869293213, -0.7236776351928711, -0.4566041827201843, -0.2618642747402191, 0.3067135214805603, 0.4397827684879303, -1.0762406587600708, 0.5023837685585022], [0.5721201300621033, 0.18091370165348053, -0.8012213110923767, -0.0374034158885479, -0.856602668762207, -0.4461781680583954, 0.9498472213745117, 1.0829229354858398, -0.4095740020275116, 0.9337583780288696], [-1.2318309545516968, 0.820874035358429, -0.2327149659395218, -0.5755580067634583, -2.6500887870788574, -0.5802162885665894, 5.051982402801514, 1.722367525100708, -4.985184192657471, -2.5920417308807373], [0.09803640097379684, 1.2944185733795166, -1.4466739892959595, -0.39438074827194214, 0.4793490767478943, 0.20415307581424713, -1.3080302476882935, 0.6762802600860596, 0.015868689864873886, 0.08121906220912933], [-1.5675368309020996, -5.8204169273376465, 1.5096534490585327, 0.2376634180545807, -0.19702236354351044, 0.027897413820028305, 1.3333702087402344, 0.0675198882818222, -0.6432734131813049, 0.6929081082344055], [0.3254859745502472, 1.266968011856079, -0.7211843132972717, -0.025755625218153, 0.9303286671638489, -0.07035654783248901, -1.5590088367462158, 0.7900074124336243, 0.20410482585430145, 0.030239233747124672], [0.4270220696926117, -0.21908606588840485, -0.5855347514152527, -0.6962262392044067, -0.5428779125213623, -0.861863911151886, 0.8322036266326904, 0.6593916416168213, -0.48800569772720337, 0.5102267861366272]]}